/*
 * Copyright (c) 2026 EdgeImpulse Inc.
 *
 * Generated by Edge Impulse and licensed under the applicable Edge Impulse
 * Terms of Service. Community and Professional Terms of Service
 * (https://edgeimpulse.com/legal/terms-of-service) or Enterprise Terms of
 * Service (https://edgeimpulse.com/legal/enterprise-terms-of-service),
 * according to your product plan subscription (the “License”).
 *
 * This software, documentation and other associated files (collectively referred
 * to as the “Software”) is a single SDK variation generated by the Edge Impulse
 * platform and requires an active paid Edge Impulse subscription to use this
 * Software for any purpose.
 *
 * You may NOT use this Software unless you have an active Edge Impulse subscription
 * that meets the eligibility requirements for the applicable License, subject to
 * your full and continued compliance with the terms and conditions of the License,
 * including without limitation any usage restrictions under the applicable License.
 *
 * If you do not have an active Edge Impulse product plan subscription, or if use
 * of this Software exceeds the usage limitations of your Edge Impulse product plan
 * subscription, you are not permitted to use this Software and must immediately
 * delete and erase all copies of this Software within your control or possession.
 * Edge Impulse reserves all rights and remedies available to enforce its rights.
 *
 * Unless required by applicable law or agreed to in writing, the Software is
 * distributed on an "AS IS" BASIS, WITHOUT WARRANTIES OR CONDITIONS OF ANY KIND,
 * either express or implied. See the License for the specific language governing
 * permissions, disclaimers and limitations under the License.
 */
// Generated on: 08.01.2026 12:48:53

#include <stdio.h>
#include <stdlib.h>
#include "edge-impulse-sdk/tensorflow/lite/c/builtin_op_data.h"
#include "edge-impulse-sdk/tensorflow/lite/c/common.h"
#include "edge-impulse-sdk/tensorflow/lite/micro/micro_mutable_op_resolver.h"
#include "edge-impulse-sdk/porting/ei_classifier_porting.h"

#if EI_CLASSIFIER_PRINT_STATE
#if defined(__cplusplus) && EI_C_LINKAGE == 1
extern "C" {
    extern void ei_printf(const char *format, ...);
}
#else
extern void ei_printf(const char *format, ...);
#endif
#endif

#define STRINGIZE(x) #x
#define STRINGIZE_VALUE_OF(x) STRINGIZE(x)

#if defined (__GNUC__)  /* GNU compiler */
#define ALIGN(X) __attribute__((aligned(X)))
#define DEFINE_SECTION(x) __attribute__((section(x)))
#elif defined (_MSC_VER)
#define ALIGN(X) __declspec(align(X))
#elif defined (__TASKING__) /* TASKING Compiler */
#define ALIGN(X) __align(X)
#define DEFINE_SECTION(x) __attribute__((section(x)))
#elif defined (__ARMCC_VERSION) /* Arm Compiler */
#define ALIGN(X) __ALIGNED(x)
#define DEFINE_SECTION(x) __attribute__((section(x)))
#elif defined (__ICCARM__) /* IAR Compiler */
#define ALIGN(x) __attribute__((aligned(x)))
#define DEFINE_SECTION(x) __attribute__((section(x)))
#elif defined (__clang__) /* LLVM/Clang Compiler */
#define ALIGN(X) __ALIGNED(x)
#define DEFINE_SECTION(x) __attribute__((section(x)))
#endif

#if defined(EI_MODEL_SECTION) && (defined(__GNUC__) || defined(__clang__))
#define MODEL_SECTION(X) __attribute__((section(STRINGIZE_VALUE_OF(X))))
#else
#define MODEL_SECTION(X)
#endif

#ifndef EI_MAX_SCRATCH_BUFFER_COUNT
#ifndef CONFIG_IDF_TARGET_ESP32S3
#define EI_MAX_SCRATCH_BUFFER_COUNT 4
#else
#define EI_MAX_SCRATCH_BUFFER_COUNT 4
#endif // CONFIG_IDF_TARGET_ESP32S3
#endif // EI_MAX_SCRATCH_BUFFER_COUNT

#ifndef EI_MAX_OVERFLOW_BUFFER_COUNT
#define EI_MAX_OVERFLOW_BUFFER_COUNT 10
#endif // EI_MAX_OVERFLOW_BUFFER_COUNT

using namespace tflite;
using namespace tflite::ops;
using namespace tflite::ops::micro;

namespace {

#if defined(EI_CLASSIFIER_ALLOCATION_STATIC_HIMAX) || defined(EI_CLASSIFIER_ALLOCATION_STATIC_HIMAX_GNU)
constexpr int kTensorArenaSize = 1744;
#else
constexpr int kTensorArenaSize = 720;
#endif

#if defined(EI_CLASSIFIER_ALLOCATION_STATIC)
#if defined (EI_TENSOR_ARENA_LOCATION)
uint8_t tensor_arena[kTensorArenaSize] ALIGN(16) DEFINE_SECTION(STRINGIZE_VALUE_OF(EI_TENSOR_ARENA_LOCATION));
#else
uint8_t tensor_arena[kTensorArenaSize] ALIGN(16);
#endif
#elif defined(EI_CLASSIFIER_ALLOCATION_STATIC_HIMAX)
#pragma Bss(".tensor_arena")
uint8_t tensor_arena[kTensorArenaSize] ALIGN(16);
#pragma Bss()
#elif defined(EI_CLASSIFIER_ALLOCATION_STATIC_HIMAX_GNU)
uint8_t tensor_arena[kTensorArenaSize] ALIGN(16) __attribute__((section(".tensor_arena")));
#else
#define EI_CLASSIFIER_ALLOCATION_HEAP 1
uint8_t* tensor_arena = NULL;
#endif

static uint8_t* tensor_boundary;
static uint8_t* current_location;

template <int SZ, class T> struct TfArray {
  int sz; T elem[SZ];
};

enum used_operators_e {
  OP_FULLY_CONNECTED, OP_SOFTMAX,  OP_LAST
};

struct TensorInfo_t { // subset of TfLiteTensor used for initialization from constant memory
  TfLiteAllocationType allocation_type;
  TfLiteType type;
  void* data;
  TfLiteIntArray* dims;
  size_t bytes;
  TfLiteQuantization quantization;
};

typedef struct {
  TfLiteTensor tensor;
  int16_t index;
} TfLiteTensorWithIndex;

typedef struct {
  TfLiteEvalTensor tensor;
  int16_t index;
} TfLiteEvalTensorWithIndex;

TfLiteContext ctx{};
static const int MAX_TFL_TENSOR_COUNT = 4;
static TfLiteTensorWithIndex tflTensors[MAX_TFL_TENSOR_COUNT];
static const int MAX_TFL_EVAL_COUNT = 4;
static TfLiteEvalTensorWithIndex tflEvalTensors[MAX_TFL_EVAL_COUNT];
TfLiteRegistration registrations[OP_LAST];

namespace g0 {
const TfArray<2, int> tensor_dimension0 = { 2, { 1,384 } };
const TfArray<1, float> quant0_scale = { 1, { 0.22169990837574005, } };
const TfArray<1, int> quant0_zero = { 1, { -63 } };
const TfLiteAffineQuantization quant0 = { (TfLiteFloatArray*)&quant0_scale, (TfLiteIntArray*)&quant0_zero, 0 };
const MODEL_SECTION(EI_MODEL_SECTION) ALIGN(8) int32_t tensor_data1[2] = { -22, 22, };
const TfArray<1, int> tensor_dimension1 = { 1, { 2 } };
const TfArray<1, float> quant1_scale = { 1, { 0.00032208257471211255, } };
const TfArray<1, int> quant1_zero = { 1, { 0 } };
const TfLiteAffineQuantization quant1 = { (TfLiteFloatArray*)&quant1_scale, (TfLiteIntArray*)&quant1_zero, 0 };
const MODEL_SECTION(EI_MODEL_SECTION) ALIGN(16) int8_t tensor_data2[2*10] = { 
  75, -104, 74, 109, 127, -82, -45, -110, 10, 91, 
  71, 15, -23, -24, -99, 0, -120, 57, -97, 36, 
};
const TfArray<2, int> tensor_dimension2 = { 2, { 2,10 } };
const TfArray<1, float> quant2_scale = { 1, { 0.0054446202702820301, } };
const TfLiteAffineQuantization quant2 = { (TfLiteFloatArray*)&quant2_scale, (TfLiteIntArray*)&g0::quant1_zero, 0 };
const MODEL_SECTION(EI_MODEL_SECTION) ALIGN(16) int32_t tensor_data3[10] = { -23, 0, 0, 0, 0, 0, -22, 22, -9, -23, };
const TfArray<1, int> tensor_dimension3 = { 1, { 10 } };
const TfArray<1, float> quant3_scale = { 1, { 0.00031223692349158227, } };
const TfLiteAffineQuantization quant3 = { (TfLiteFloatArray*)&quant3_scale, (TfLiteIntArray*)&g0::quant1_zero, 0 };
const MODEL_SECTION(EI_MODEL_SECTION) ALIGN(16) int8_t tensor_data4[10*20] = { 
  43, -84, -76, 15, 109, 19, 123, -113, -5, -59, 25, 20, 71, 123, 57, -90, -1, -29, -74, 25, 
  -61, -124, 74, 73, 58, -45, -57, -105, -101, 20, -57, -58, 69, 24, 76, 98, -55, 37, -48, -33, 
  -25, -105, -3, 115, -53, -64, -39, 22, -45, -12, 35, 55, -23, -94, -14, -76, 92, -106, -109, -88, 
  64, 15, 102, 4, -72, 84, -63, -50, -31, 80, 109, 53, -80, -102, -5, -49, -29, -59, 115, 92, 
  -49, 65, -105, -47, -92, 76, -39, 29, -100, 67, 98, 62, -22, 54, 27, -103, -53, 109, 79, 63, 
  -96, 76, -76, 55, -33, -127, -7, 85, -127, -51, 84, 65, -55, 68, -26, -74, -40, 67, -74, 4, 
  99, 51, -66, -85, 89, 87, 12, -34, -27, -1, 67, 44, -76, -46, 8, -19, 64, -20, -15, -40, 
  -15, 99, 53, 66, -14, 92, 95, -123, 123, -28, -63, 123, 70, -28, -107, 54, 95, 6, 12, 94, 
  67, 44, 59, 45, 94, 36, -119, -29, -33, 13, 103, 23, -5, -115, -38, 104, -96, 76, -52, -36, 
  47, -78, -19, -1, 89, 112, -22, 14, 86, -106, -66, 53, -79, -60, 59, -20, -21, 96, 6, 82, 
};
const TfArray<2, int> tensor_dimension4 = { 2, { 10,20 } };
const TfArray<1, float> quant4_scale = { 1, { 0.0035151408519595861, } };
const TfLiteAffineQuantization quant4 = { (TfLiteFloatArray*)&quant4_scale, (TfLiteIntArray*)&g0::quant1_zero, 0 };
const MODEL_SECTION(EI_MODEL_SECTION) ALIGN(16) int32_t tensor_data5[20] = { -19, 0, 27, -3, -20, -13, 19, -19, 19, 35, -7, 0, -14, 17, -18, 0, 19, -20, 17, 18, };
const TfArray<1, int> tensor_dimension5 = { 1, { 20 } };
const TfArray<1, float> quant5_scale = { 1, { 0.00036613663542084396, } };
const TfLiteAffineQuantization quant5 = { (TfLiteFloatArray*)&quant5_scale, (TfLiteIntArray*)&g0::quant1_zero, 0 };
const MODEL_SECTION(EI_MODEL_SECTION) ALIGN(16) int8_t tensor_data6[20*384] = { 
  -17, -7, 1, 59, 18, 36, 22, -47, 25, -60, -4, 27, -63, -46, -15, 63, 19, 52, -35, -37, 60, -21, 61, 13, -67, 46, -36, -37, -50, -66, 15, 19, 41, -61, -68, 30, -46, 50, -7, -47, 31, -9, -58, -25, -63, 59, -27, 61, -49, -53, -14, -69, 24, -20, -63, 44, 68, 53, 71, 41, 26, -31, 5, -55, -38, -75, 34, 21, 52, -5, 22, -57, -40, -18, -14, -36, 53, 36, -6, 61, 22, -1, -10, 22, -16, 8, -71, -7, -53, -68, 26, -18, -36, 61, -10, -72, 65, 38, -55, -30, -6, -75, 13, 35, -21, -34, -32, 0, -42, -35, 57, 18, 1, 45, -37, 64, -37, 20, -74, 21, 33, 0, 15, 67, -72, -13, 43, 1, 61, -33, -44, -48, 60, 23, 59, -39, 4, 69, -16, 3, 37, -2, -48, -47, -27, -15, -16, 35, -44, -38, -31, 41, -20, 40, 22, -27, 55, 15, -73, -2, 25, 54, -41, -30, -23, -32, -53, -54, 44, 58, -40, -14, -19, -23, -13, 53, 39, 36, -48, -53, 8, 23, -67, -50, 3, 25, -36, -72, 39, -3, 65, -52, 18, 85, 41, 26, -49, 57, -61, -2, -20, 47, 68, 25, 25, -43, 52, -36, 29, 55, 70, 44, -9, -24, -19, -10, -17, -32, -16, -35, 29, 45, 34, -59, 67, -49, -17, -34, -67, 76, -14, -61, -28, -22, -60, -47, 65, 17, 60, 63, -26, -43, 38, -40, 57, 62, -36, 6, -28, 69, 27, 49, -7, 34, -65, -36, -33, 46, -19, 20, 5, 61, -37, 12, -7, 58, -5, 56, 55, 66, 39, -28, -11, -8, -11, -70, -62, 30, -15, -39, 64, -42, 11, -26, -43, -2, -49, -27, -26, -20, -14, 73, 13, -34, 58, 25, -9, -15, 8, 54, 3, 37, 16, -72, 36, -29, 66, -72, 25, 27, -24, -72, -10, -24, -1, -2, -5, -43, -1, -66, 34, 7, 12, 17, 21, -61, -10, 17, -3, -23, -28, 19, -64, -30, -7, 55, -11, 62, -64, -58, -64, -55, 22, 19, -30, 21, -49, -17, 15, -34, 51, 64, -57, -75, 18, -1, -10, -39, 36, -2, -19, -25, 36, 63, 27, -10, -52, 18, -36, 58, 10, -39, 33, 41, -1, 14, -74, -44, 20, -19, 31, 47, -33, 21, 
  -71, -5, 59, 9, -21, 12, 23, 22, 32, 67, -47, 30, 10, 13, 45, -39, 57, 36, 74, -43, -12, -7, 60, -14, 37, 35, -13, 53, -18, -53, -11, 68, 63, 70, 50, -23, -58, -7, 19, -33, -30, -40, 71, 51, 42, -19, 54, -51, 6, 0, -66, -8, 3, -27, -10, -74, -69, 58, 61, -58, -13, 50, -29, -12, -18, 1, 55, -72, 40, -19, 66, -41, 43, -5, 10, 59, -23, -41, -5, 65, -10, -73, -37, 0, 33, 6, -15, -53, 14, -18, 23, 23, 65, 17, 4, 41, -34, -60, 12, -64, 16, 69, -1, -10, -50, 34, 53, -46, -13, -13, -21, -64, 72, 22, -21, 64, 19, 15, -54, -51, 18, -68, -23, -38, 34, -6, -2, 28, -60, 68, -25, -21, 45, -22, 68, 45, -46, -23, -11, 46, -69, 10, -7, -32, 3, 45, 45, 35, -28, -43, -34, -25, -33, -28, -28, 51, 45, 66, -50, -34, -43, -59, 40, -33, -60, -24, -55, 12, -64, -18, -15, -46, 30, -25, -12, 48, 38, -23, -40, -43, -56, 17, 25, 23, -16, 56, -6, -14, 45, 70, 57, 30, 53, 63, -11, 15, -42, -63, -63, 63, 52, -27, -61, 7, -42, 7, 39, 64, 35, 50, -41, -14, -1, -7, -55, 4, 22, 24, -5, -53, -61, -62, 29, -32, 24, 60, -19, -17, -32, -60, 72, 52, 57, 38, -46, -42, 4, -5, -9, 1, -67, 41, 15, 72, -8, -13, -4, -58, 22, 59, 29, -43, 6, 17, 74, 25, -25, -6, -57, 40, -73, -25, 63, -48, 43, -25, -71, -13, 63, -62, -42, -21, 43, 36, 70, -64, 47, -1, 23, -8, -49, -43, 11, 22, 21, -25, 30, -72, 70, -59, 13, -27, -20, 18, -18, 0, -18, 5, 38, 5, 63, 2, -26, -5, 9, -16, -41, -23, -67, 24, 15, 49, 61, -64, 66, -24, 53, 70, 12, 8, -20, 63, 19, -66, 57, -7, 15, -27, 48, -11, -34, -26, -10, 70, 45, 64, -28, 9, 54, -50, 59, 50, -8, 31, 16, 26, 13, -54, -55, -67, 72, 35, 54, 26, 56, -28, -23, -71, -57, -17, -64, 22, 67, 39, -31, 72, 22, 65, -68, -28, -41, -2, 38, 27, -14, 44, -73, -68, 45, 9, -62, 51, -34, 68, 
  65, -11, -78, -49, 35, -42, 41, 59, 66, -6, -56, 9, -56, 32, -45, 49, 21, 41, -2, 30, 73, -68, 37, -60, 7, -20, 68, 35, -40, -58, -36, 49, 37, -54, -17, -24, -64, -5, 40, -57, 36, 38, -66, -11, 24, -15, -38, -58, 25, -20, 37, -17, -11, 1, 38, -59, 6, 9, 7, -20, 66, -25, -10, 15, 13, 68, -20, -37, -12, -30, -9, -76, 0, 60, -15, -67, -65, 37, -40, -45, 28, -42, 24, -3, 7, 12, -22, -4, -61, -1, -53, 61, 15, -27, 74, 52, 26, 36, 25, 22, -70, -61, -37, -51, 34, -25, 68, 54, 7, -13, -35, 40, 6, -57, -46, -58, 39, 78, -16, 32, -37, 59, 73, -71, 63, 60, 20, 50, -60, 18, 21, -37, 22, 33, 36, 36, -37, 54, 40, 24, -12, 63, 65, 66, -60, 1, -62, 6, -26, 9, 30, -37, -25, 8, 28, 71, 40, -22, 57, -54, 6, 52, 15, 64, -6, -44, -32, -12, -26, -10, -58, -22, 2, -71, -23, 12, 44, -34, -38, -64, 43, -56, 1, 67, -40, 10, 40, -9, 34, -46, 7, 23, -29, 41, -1, -45, 20, -66, -57, -4, 62, -8, 8, -24, -66, -61, 16, 4, -73, 58, 49, -76, -31, -29, 40, 25, -69, 47, 59, -74, -11, 12, 32, -36, -50, 3, 2, -75, -55, -20, -2, 22, -33, 9, 67, -6, 41, 5, 46, -50, -55, 63, -71, -25, 12, -72, 2, -7, 58, -29, 11, 37, 56, -35, 39, -37, -30, 40, -91, -52, 31, -53, 6, -59, -35, 50, 44, -34, 25, 23, 25, 24, 46, -12, 0, 2, -23, -29, -52, -38, 43, -39, -35, 20, -46, -2, 12, -53, 40, -73, -29, -61, 67, 70, 61, -22, 55, -34, 43, -53, 53, 47, 20, -53, -8, -37, 2, -25, 65, 11, -40, 56, -45, 10, 59, -4, 67, 72, -12, 59, -1, -98, -9, 66, 45, 62, -76, 11, -45, 30, 24, 15, 15, -30, -33, 33, -47, -22, -9, -33, 63, 64, -12, -45, 60, 64, 30, -60, 42, 66, 30, 10, 58, -61, -42, -32, -37, 35, 63, -47, -49, -21, 9, 76, -34, 71, -15, -59, -22, -41, 10, -9, -63, -39, -14, -13, -61, -38, -64, -20, 15, -24, -35, 17, 
  -59, 36, -41, 42, -7, 43, -6, 71, 37, -61, 60, 59, 36, 46, 32, -15, -55, -34, 25, 47, -47, 30, -46, -26, 45, 38, -51, 44, 62, 48, -31, 31, 62, -31, 45, 10, 72, -69, 15, 51, -59, 45, 2, 57, 71, -55, -2, -45, 44, 34, -47, -1, -13, -72, 18, -55, -61, -71, -29, -7, 67, 26, 70, 53, -45, -62, 38, -64, -47, -65, 43, -37, -38, -51, 17, 26, -17, 75, 28, 72, 16, 49, 52, -21, -12, -57, -5, -27, 46, -28, 31, 26, -58, 11, 62, -26, -42, -13, 59, -16, -22, -5, 60, -41, -33, -2, 10, -18, 15, 22, -59, 13, -1, 55, 6, 67, -64, 5, 52, -2, -66, 60, 4, 25, -60, 5, 1, -42, 21, 25, -31, -66, -19, 64, -13, -34, -47, 17, 8, 51, 46, 50, 20, -26, 15, 18, -29, -48, -23, -53, -17, -44, 60, 67, -45, 27, 28, 73, -39, -59, -23, 34, 62, 46, -37, 21, -23, -49, 28, 13, -68, -31, 1, -63, 44, 34, 27, 34, 54, -71, -16, 54, 64, 58, 0, -70, -9, 47, 6, -40, -9, -56, 5, -47, 0, 69, -29, -49, -43, -30, -34, -15, -44, -29, 5, -4, 6, 50, 69, 1, -3, 64, -4, -14, -18, -27, -64, -2, -58, -47, 71, 24, 55, -20, 73, -69, 55, -68, -37, 16, 1, 70, -68, 65, -47, 21, -27, -6, 62, 67, -2, 25, 56, -64, -63, -21, 8, 15, -71, -25, -67, 26, -18, -67, 2, -26, -47, 59, 61, 31, -15, -46, 36, -31, -53, -10, 38, -41, -7, -43, 26, 70, 17, -40, -54, -14, 49, -24, -27, 8, 69, 75, 37, 16, 69, -43, 57, -44, -44, -4, -35, -50, -68, 50, -16, -43, 22, -33, -26, 23, -23, -18, -2, -69, 6, 1, 20, -9, 64, -28, 30, 28, 24, 45, 66, 25, 51, -39, -52, -58, -35, -51, -53, -63, -8, -37, 21, -55, -39, 46, 68, 50, 17, -2, 7, 68, 33, 72, 19, -36, 22, -41, -42, 30, 18, 0, -11, -62, -53, -22, 30, -68, -16, 33, 7, 39, 4, -18, 34, -55, 27, 14, -52, 1, 24, 16, 48, -32, -45, 56, 19, 13, -1, 58, 73, 20, 71, 17, 27, -16, -59, -27, -60, -48, 
  42, 18, 29, -47, -60, -54, 62, -18, -34, 41, -23, 14, -45, -32, -50, 38, 43, 48, -6, -19, -11, 65, -14, -11, -23, 3, 52, 48, -66, -59, 31, -51, 62, -54, -23, -38, -24, -69, 15, 42, 6, 19, -68, -30, 40, -46, 52, 41, -16, 48, 45, 51, -61, -23, -22, 68, 46, 55, 63, 40, -64, -61, 63, 63, -24, 16, 2, 69, -81, -13, -59, 24, 55, 26, 31, 37, -21, -18, -32, -28, 55, -68, 38, -52, 23, -42, 18, -50, 51, -26, -26, 2, 19, 48, 19, -1, 10, -16, -54, -58, -17, -66, 16, -23, 64, -42, -73, -21, -51, 23, -47, -6, -44, -5, 27, -9, -33, -55, -41, -11, 65, -21, -43, -9, -62, 5, 66, -60, -30, 7, -4, -19, 21, -11, -17, -18, 38, 36, -65, 52, 24, 11, 47, 6, 49, -71, 56, 13, -63, -64, -9, 34, -26, -50, 33, 73, 57, -41, 64, -55, -28, 45, -66, -16, -69, -49, 13, -27, 65, -24, -20, -68, -57, 41, 38, 10, -30, 37, -24, 21, -31, 3, 21, 22, 16, -59, -40, -51, 54, -49, 58, -33, 35, -31, -27, 51, -8, -11, 6, -42, -46, 72, 12, -63, -49, -61, -11, -8, -37, 8, 61, 40, 25, 26, 60, 19, -9, -66, 38, 40, 15, -15, 20, -16, -36, 53, 5, 60, -26, -19, -36, -17, 34, -23, 71, -42, -27, 76, -22, -30, 77, 59, -60, -56, 52, -36, 44, -12, 74, -67, 71, -66, 36, -68, 9, 74, 19, 11, 54, 8, -2, 65, -60, 46, 47, 52, -59, 63, -28, 66, 20, -38, -36, 40, -47, -5, 17, -28, 34, 31, 65, 16, 16, -10, 31, -4, -15, 20, 44, -72, 31, 18, -52, -47, 50, -23, -59, 26, -44, -73, 17, -28, -13, 29, 1, -2, -62, 45, -43, -37, -44, -59, -23, -13, -2, 50, 27, 15, 58, -72, -52, 44, 58, 30, -22, 31, -54, -12, 74, -42, -22, 57, -65, 54, -24, -66, -44, 67, -9, 61, 16, -45, -19, -49, 69, -16, -18, -49, 52, 52, -39, -74, -76, -76, 70, -34, 53, -66, -42, -49, -72, -25, -54, -40, -9, 59, -77, -39, 0, -61, -40, -28, -55, -70, -12, -1, -19, 58, 18, -54, 11, 23, -17, 8, 
  -20, 52, 9, -6, -28, -54, 11, 76, -25, 20, -64, -23, -68, 38, 16, 2, -62, 24, -19, 10, -53, -57, -3, -33, 57, -15, 24, -7, -31, 76, -10, -4, 60, -41, 20, -64, 53, -39, 33, 68, 54, 32, -47, -16, 16, -68, -51, -45, 1, 50, 68, -7, 28, -26, 36, 47, 28, -5, 45, 9, 23, -66, 52, -53, -22, 4, -32, 56, 63, 34, 69, -32, 51, -52, -71, -45, -7, -9, 48, 2, -55, 29, -34, 60, -4, -54, 23, -3, 74, -11, 11, 7, -43, 59, 5, -4, -6, 26, 1, 47, -8, 25, 61, -40, 18, 15, 74, -46, 27, 42, -5, -4, 24, 44, 54, 16, 38, -54, 22, -43, -70, 43, -54, 13, 5, 70, -9, -25, -40, -62, 1, 22, -47, -24, 16, 65, 33, -55, 58, 69, 41, 0, 2, -39, 13, -39, 66, 69, 65, -33, 57, 20, 27, -64, 53, -4, -21, 58, -27, -3, 43, -70, 38, -57, 50, -70, 72, -39, 42, 9, -2, 62, -60, 3, -59, 22, -55, -19, 73, 37, 63, 27, -69, -53, -9, -38, 5, -35, 74, -60, -36, 74, 32, 11, 14, -51, 66, -2, 54, 6, -6, 29, 52, 48, -64, -54, -54, -22, 15, 50, 31, -25, -27, -27, 47, -59, -45, 64, 18, -69, -44, 74, -23, -36, 57, 26, -66, -17, -50, 58, -8, 55, 35, -30, -63, 11, 20, -9, -36, -31, 54, -64, 19, 14, 28, 28, 67, 28, -31, 10, 31, -20, 31, -20, 9, -69, 8, -73, 37, -6, -59, 41, -23, -29, -6, 76, -66, 71, 35, 16, 11, -58, 62, -34, 9, 42, -14, 14, 72, -27, -47, 41, -65, 29, 26, 3, -34, -57, -2, 16, 24, 15, -53, -3, -5, 63, -56, 73, -63, -44, -56, -61, 76, 14, -23, -42, -70, -30, -47, -18, 76, 76, 3, 15, -46, 62, -17, 68, -1, 26, 30, -56, 45, 58, 53, 74, -7, -54, -2, 28, 24, -13, 46, 44, 62, 28, -1, -59, 42, -68, -7, 34, 10, -58, -53, -21, 72, -23, 68, 63, -7, 32, 33, 67, 3, -46, -15, -60, -71, 60, -9, -29, -8, -52, 43, 8, 15, 0, -19, 15, 29, 65, -40, 46, 63, -42, 69, -3, -22, -6, -44, -38, -60, -9, 
  52, -23, -43, -39, -43, -72, -25, 52, -26, 8, -1, -6, 0, 42, 28, -11, -30, -37, 71, 58, -31, 16, -34, 47, -29, -6, 74, -59, 59, 19, 51, -64, 3, -8, -57, 44, -65, 32, -58, 73, -6, 19, -2, 7, -36, -62, 72, -37, -6, -15, -47, 62, -59, 49, 25, -6, 7, 62, 41, -24, -44, 9, 55, -40, 62, 44, -99, 49, -45, -44, 8, 60, -26, 33, 20, 40, 31, 55, 28, -33, 53, 43, 2, 22, -41, -20, 42, 17, -36, -31, -53, 46, -30, 67, -21, -67, -30, -44, -65, -6, -42, -40, 4, -19, 71, -8, -6, -46, -38, -3, -3, 42, 49, -71, 18, -13, 45, -24, -60, -24, -38, 16, -60, 1, -28, -59, -4, 35, -24, -39, 12, -63, 1, 32, 49, 58, -60, 34, 49, 72, 26, 43, -30, -72, -54, 8, 51, -65, 57, 47, -51, 61, -5, 63, -30, -67, 13, -29, 48, -36, 69, 26, -15, -52, 43, -30, -29, 41, 52, 16, -72, 52, 46, 73, 33, -61, -70, -29, 27, -15, 50, -23, 66, 4, -31, -66, 42, -58, -54, -63, 43, -41, 42, -34, -66, -18, 47, 59, -19, -4, -47, -44, -24, -41, -11, 63, 70, 3, 4, 64, -14, 29, 55, -36, -73, -38, 1, -7, -38, 21, 6, 71, -7, -17, 15, -60, 18, 69, 70, -32, -26, -5, 39, -41, -49, 43, -4, -72, -3, -63, -36, -16, -5, -53, -63, 27, 25, 58, 60, -77, -60, -29, 2, 50, -1, -43, 91, 12, 51, 20, 70, 56, -72, 65, 50, 26, -56, -44, 0, 51, -43, -50, -53, -23, 45, 10, -34, -53, -58, 56, 55, -33, 26, -64, -47, -9, 2, -69, -29, -58, 10, -7, -19, -62, -67, -22, 46, -17, -72, 57, -45, 20, -67, -67, -4, 23, -19, 22, -46, -73, -30, 44, -53, -38, 22, 22, 27, -53, -16, -71, -16, -98, 44, 66, -41, -41, 59, -53, -73, 37, 29, -31, 20, -49, -41, -72, 22, 59, -29, -58, 1, -16, 54, 23, 74, -24, -7, 38, 15, 49, 51, 27, 53, 75, -33, 16, 36, -3, -13, 50, -27, -24, -63, 33, -60, 76, -13, 14, 64, 42, -34, 14, 37, 18, -39, -24, -42, -36, 49, 33, -62, -38, -23, -50, 
  36, -69, 38, 61, 61, 22, 21, 29, -23, 59, -18, 71, -25, 29, -48, -71, -24, -39, -49, 66, 57, -49, -38, -1, -17, 69, -21, 18, -69, -12, 13, 64, 13, -65, -26, -70, -14, 17, 49, -25, -15, 18, 70, 67, 25, -8, 13, -65, -45, 35, -52, -22, -18, 7, -25, -48, -64, 49, 47, -74, -51, -26, 34, -58, 11, -5, 51, -33, -43, 78, -40, 17, -9, 30, 0, 16, -25, 44, -35, 36, 74, -71, 45, -3, 17, -70, 33, 34, 51, -26, -18, -63, 10, -41, -62, -35, -29, -63, 3, 65, -25, 41, -4, -66, -11, -30, -37, -67, 66, -27, -42, -62, 11, 31, 61, -33, 50, -17, -30, 26, -24, 18, -8, -61, 28, 27, -52, -64, -11, -35, 62, -11, -23, 14, -49, 43, -14, -18, 7, -6, -9, 42, 43, 57, 27, 44, -3, -54, 47, 14, 39, -32, 5, 40, 43, 18, -29, 7, -14, -24, -10, -63, 16, -14, -12, -27, -74, 26, -70, -19, 42, -26, -28, 7, -64, 39, -40, -74, -38, -13, -6, 57, -26, -41, -56, 11, 29, 50, 69, -5, -74, -25, 49, 79, -27, 21, 63, 51, -35, 29, -33, -3, -39, 13, -9, 65, -12, -43, -25, -11, -12, -39, -65, -2, 14, 29, 73, -69, -11, 54, -19, 16, 10, 48, 17, -29, -23, -8, -54, 33, 26, -43, -69, 61, 2, 21, 26, 40, 65, 42, 45, 17, -24, -9, 40, -11, -64, 7, -67, 63, -8, 52, -24, 39, 49, -66, -56, 83, -35, 44, -52, 27, 46, -32, -64, -15, 63, 20, 14, -50, 22, 10, -35, -36, 43, -68, -72, 46, -23, -59, -2, 57, 37, -22, 64, 21, -32, -29, 48, -3, 53, 68, -62, 11, -28, 6, 17, 46, -67, 7, -41, -71, 62, -35, 60, 16, 12, 53, 19, -51, -22, 23, 57, 70, -68, -69, 64, 13, -56, 23, 59, 93, 30, -37, -56, -63, -47, -51, 15, -55, 37, -40, -16, 50, 46, 45, 2, 39, 24, 44, 63, -38, 24, 34, 13, -10, 16, -3, -10, -13, 37, -37, 61, 20, -58, -32, -65, -13, -34, -23, 39, 49, 59, -21, -21, 30, -75, 39, -18, 38, 42, -12, 19, -64, -56, -72, 27, 6, -26, -54, -3, -25, -72, -74, 
  57, 67, 27, -12, -60, 44, -9, -43, -7, -9, 7, 44, 41, -27, 11, -30, 29, -34, 72, 17, 70, 52, 64, 29, 45, 47, 53, -6, 60, -63, 43, -66, -8, 0, -60, -19, -63, 64, -48, 7, -35, -35, -62, -25, -63, 22, -24, -6, -37, 23, -66, -70, 77, -42, 39, 37, 10, 36, -6, -25, 48, -15, 65, -25, 31, -45, 30, 55, 54, -42, -35, -26, 8, -59, -24, -69, -56, -35, -44, 61, -37, -44, -59, -33, 63, 16, -6, 24, 40, 40, -1, -66, -66, -17, 58, -2, 70, 18, 33, -39, -49, -42, -32, 34, 10, 57, -14, 12, 20, -6, -32, 51, 14, 35, 57, 70, 29, -41, 62, -17, 51, 59, 4, -22, 38, -68, 15, 74, -69, 77, -85, 63, -66, -23, -51, -1, -54, 66, 16, 61, 60, -4, 49, -39, -60, 10, 30, -51, -65, -43, 64, 41, -38, -48, -35, 43, -72, -67, 41, -13, 43, 8, 12, -58, -21, -67, -62, 23, 18, 17, 62, -9, 12, 57, 63, -31, 58, -21, -74, 29, -64, -23, -49, -23, 2, 32, -52, -26, -63, 41, 39, 37, -6, 27, -62, 36, -6, -34, -70, 55, 48, 21, -27, -24, 17, -23, 6, -68, 57, 31, 65, -50, -57, -31, 55, 18, 63, -72, -72, 35, 51, 37, 6, -28, -40, -69, -52, -73, 42, -51, 23, -10, -37, -47, 20, -15, -19, -6, 32, 42, -11, -3, 64, -7, 48, -54, 1, 29, 58, 24, 15, -44, 57, 67, -46, 29, -37, 6, 44, 36, 35, 58, -11, -29, 50, 20, -38, -58, -72, -13, 69, 5, 7, 17, 47, 20, -53, 42, -68, -16, -43, 54, -27, -62, 70, 46, 10, -5, -57, -73, 33, 7, 69, 65, 6, 44, 31, -23, -63, 68, 23, 3, 17, -3, -42, -37, -74, 33, -34, -49, -37, -53, 27, 34, -57, -5, -64, -55, -32, -63, 50, -63, 46, -2, -14, 18, -59, 10, 16, -64, 22, 2, 34, 20, -73, -10, 31, -9, -69, -31, 68, -24, -49, -38, 33, 19, -35, 44, -3, 33, 30, 66, 32, -6, 53, 23, -65, -47, -40, -66, 57, 20, -41, 31, 20, 45, 70, -20, -9, 58, -70, -8, 1, 16, -25, 70, 46, 50, -60, -70, 37, -54, 74, -27, 
  -39, 36, -93, -4, -43, 39, -72, -4, -45, -72, -62, -54, -79, -24, -51, 56, -12, 40, 48, -46, -12, 48, 9, 64, 71, 49, 2, 21, -6, 31, -30, -16, -52, -3, 48, 23, 49, 57, -12, 9, 17, 34, -35, 22, -32, -74, 48, 32, 63, -58, 38, 70, -65, -63, -43, 15, 39, 8, -68, 23, -65, -39, -47, 62, 56, 18, -127, -21, -47, 25, -51, 43, 58, 4, -13, -60, 65, -22, -78, 51, 37, 69, -63, -38, -47, 59, -54, -41, 33, 16, 59, 31, -19, -7, 15, 75, 8, -66, -54, -28, 49, -51, -59, -22, 15, 6, -64, -26, 34, 29, 37, -34, -27, -28, 64, 55, 68, 51, 54, 41, 61, -67, -32, 65, -39, 36, 58, -16, -31, 66, -62, -34, -19, -21, -57, 39, 67, 4, 11, -69, 58, -46, 29, 1, 10, 31, 69, -5, -68, -5, -70, -63, -33, -51, 66, -59, -57, 41, -60, -11, -13, -68, 35, 32, 1, -69, -25, -32, -1, -39, 18, 54, 51, -22, -64, -41, 9, -48, 55, -9, -72, 4, 46, 58, 38, -46, 79, 58, -9, 5, 12, -29, -32, 38, 15, -58, -29, -30, -76, -15, 32, 14, -52, -23, 24, 41, 49, -58, 55, -4, 0, -8, 7, 56, 11, -21, 35, 60, 42, 13, 13, 21, -75, -73, -51, -43, -8, -28, 1, 22, -63, -14, -26, 12, -44, -2, 63, -73, -32, -68, -30, 19, 31, -52, 30, 13, -23, -21, 16, 68, -31, 26, -11, -37, 29, -72, -31, 48, 41, -45, 65, 66, 43, -33, 57, -28, -10, 63, -19, 10, -33, -30, 69, 53, 16, -58, 22, 20, 61, 57, -72, 1, -11, 4, 16, -54, -59, 69, -7, 6, 13, -35, 4, 35, -23, -66, -53, -53, -38, -65, 65, -71, 40, -58, 31, 3, -52, -58, -12, 28, -3, 21, 31, 48, -5, -35, -5, -40, -47, -40, -33, -74, -45, 7, 24, 0, 17, 6, 39, 37, -33, -37, 10, -37, 24, 56, -28, -4, 25, 31, 34, -45, -14, 25, -31, 36, 42, -12, -46, -54, -12, -51, 71, -32, 27, -11, -23, 54, 26, 42, 27, 2, 28, -32, 33, -19, 67, 47, 62, -41, -33, -54, -27, -58, 1, 35, 5, -38, 71, 80, 38, -27, -61, 0, 
  70, 16, 32, -72, -59, -28, 44, 13, -3, 26, -54, 24, 21, -55, 36, -41, 0, 1, 27, 17, -61, 36, -66, 59, 62, -12, -33, -22, 54, 51, -69, -56, -56, -14, 75, 66, -19, -56, -56, 22, 29, -8, 5, -21, -22, 52, 7, -68, 44, 30, -21, -44, -13, -3, 54, 66, -46, -30, 18, -10, 21, 26, 49, 51, 18, -72, -64, 31, 32, 22, 58, 10, -15, -28, 1, 66, 21, -45, 35, 74, -29, -49, 23, -48, -30, 51, -24, 20, -26, -36, 0, 70, 35, -37, -9, 6, -39, 27, -64, 36, 63, 46, 36, 32, 37, -33, 3, -64, 57, 7, -16, 4, 26, 37, -69, 11, -20, 64, -25, -41, -35, -60, -43, -53, 62, 36, -52, 18, 34, -67, 46, -32, -57, -67, 24, 24, -8, -65, 68, 45, -29, -52, -32, 21, -11, -69, -6, -26, 31, -29, -1, 40, 37, 64, -39, -39, -29, 10, -10, 3, 61, -62, 58, 26, -5, 8, 19, -43, -3, 8, 49, -25, -35, -65, 56, 62, 26, 5, 26, 69, 22, -64, 32, -58, -12, 47, -61, 40, 72, 7, -50, -70, 49, -71, 2, 27, -19, -37, -69, -11, 23, 57, 29, -29, -19, 43, 21, 41, 26, -13, 1, -33, 56, 28, 18, -42, -48, 70, 22, -6, -2, -2, -24, -56, -14, 19, 62, 18, -31, 57, -23, -53, -3, 45, -65, 36, 29, -44, 9, 14, -24, 41, -42, -13, 49, -1, -45, 36, -37, 75, 28, -32, -65, 72, -18, 57, -5, 1, -29, -6, -70, -46, 2, 46, 42, 31, -16, 15, -46, -37, 56, 55, -63, 11, 40, 7, 7, 34, 60, -7, 8, 45, -18, 21, 24, -40, 0, 53, 64, 43, -58, -3, -32, -64, -63, 55, 42, 73, 35, 22, -30, 65, -4, 31, -23, 37, 49, -31, 6, 21, 54, -34, -30, 14, 34, -23, -40, 36, 9, -19, 11, 36, -24, 38, 38, 37, -56, 3, -52, 55, -68, 19, -59, -42, -24, 13, -44, -33, 40, 74, -20, -26, -50, -69, 12, 2, 50, 61, 53, 70, -26, 21, -11, -70, 73, 13, -30, 17, 4, 11, 34, -36, -66, 64, -45, -13, -55, -66, -64, -64, 0, -19, 4, 12, 14, 41, 16, -58, -17, 36, 35, -50, 45, 40, 
  -10, 25, 65, -22, -56, -65, 73, -29, 54, -17, 63, 67, 47, 67, -27, 33, -30, -26, 66, 2, -16, -16, 70, 3, 22, 29, 46, 36, 74, 28, -6, -15, 3, -30, 20, -16, -51, 18, 19, 39, 32, 53, 63, -11, -39, -23, 16, 34, -63, -6, -55, 49, 22, 25, 67, 42, 37, -13, 8, -59, 56, 39, -2, -20, 52, 44, 48, -18, -15, -17, -56, 2, -41, -44, 59, 20, 32, 59, 32, 12, 33, 66, -61, -39, -68, -65, -47, 34, -9, 47, 36, -58, -71, -55, 14, 21, 32, 48, -12, -20, -9, -5, 55, 51, 45, 28, 7, 72, 0, -62, -15, 15, 30, 23, -66, -48, -67, 6, 46, 26, 72, 65, 5, -15, -5, -20, -39, -55, 73, 54, -45, 44, 30, -15, -64, 15, -54, 55, -36, 42, -6, 9, -11, 31, 48, -66, 2, -29, -50, -37, 51, -42, -8, 6, -10, 26, 36, 74, -5, -16, 66, -21, 5, 37, -64, 32, -29, -44, 47, 14, 26, 5, 61, -33, 63, 1, 68, 73, -15, 60, -26, 63, 34, 52, -50, 24, 2, 27, 65, 52, -62, -22, -8, -72, -28, 59, 43, 45, -67, -36, -14, -58, 64, -49, -54, 34, -44, -56, -3, -4, -27, -6, -58, 14, -15, -41, -19, -24, -6, 54, 4, 58, -31, -28, 32, 5, 23, -35, 23, -72, -55, -48, 25, -1, 21, -1, 20, 46, -5, -6, 21, -56, -46, 30, -5, -13, -2, 30, -2, 23, 43, -38, 10, -19, -61, -39, 40, 32, 68, -8, -29, -20, 12, -59, -11, -31, 8, 19, -22, 53, -65, -11, 68, -2, -33, -2, 41, -39, 46, 32, 34, -3, 49, -16, 28, -28, -56, -14, 38, -8, -9, -8, -56, -54, -48, -13, 47, 70, 13, 31, 2, -24, 6, 73, 61, 71, -16, -26, 65, 27, 29, 73, 10, -9, -64, 46, 6, 49, -32, 65, -28, 28, 41, 31, 18, 55, 72, 25, -68, -34, -54, 6, 55, -47, -11, -42, -9, 35, 51, -23, -21, 37, -27, -7, 33, 71, -35, 17, 64, 24, 54, 35, -15, 49, -27, 2, 40, 27, 8, -2, -21, -55, 21, -27, 12, 15, -8, 25, -24, -18, 22, 70, -24, 37, 70, 21, -14, -8, 60, -35, -19, -32, -18, 22, 
  -32, -73, -3, -26, 42, -59, -40, -67, -55, 39, -13, -64, 22, 43, -22, 58, 13, -21, 65, -16, 38, 45, -42, 49, 40, -19, 9, -31, 65, -16, -27, 21, -67, 69, 49, 49, 63, -44, -58, -42, -5, 15, -55, -32, -69, -25, 71, 45, -7, 77, 52, -61, -69, 17, -44, -68, -46, 26, -10, 36, -20, -49, -52, 52, 8, 22, 44, 25, 5, 52, 1, -33, 35, 49, 22, -70, -27, 58, -61, -61, 14, 33, 64, 49, 70, 58, -65, -40, 5, 47, -50, 68, 17, 14, -48, -64, 28, 9, 49, -14, -48, 45, 37, 25, 0, -59, -3, 61, 39, 14, -2, -22, 5, -34, -47, 14, -33, -22, 67, 41, 44, -5, 27, -37, 26, 32, -70, 42, -44, 66, -9, 37, 58, -3, 24, 69, 41, -2, 58, 75, 47, 17, 60, -17, -27, -19, -70, 53, -22, -71, 19, -51, -2, 25, -3, 73, -50, 43, -25, -33, 55, -20, -71, -27, -52, -69, 0, 74, -31, -38, 64, -45, -66, 27, 33, 44, -29, 16, -33, -70, -56, -16, -24, -9, 57, -52, -44, -61, -39, -52, -3, 73, 7, 49, -42, 65, -24, 23, -40, -35, 12, 37, -48, 63, 6, -64, 17, 73, 15, -4, 36, -67, -35, 46, 67, 54, 52, -33, -24, -24, 31, 72, 1, -20, 55, 66, 51, -20, -56, 39, 19, -26, 20, 42, -32, -47, 20, 10, -56, 36, -53, 43, 72, -61, -65, 21, 46, -45, -41, 46, -65, 50, -56, 56, 37, -70, -39, 67, -12, 45, 23, 57, 66, 43, -4, -51, -29, -62, -6, -70, 63, 30, -42, -70, -31, 66, 16, -6, 10, -22, 8, -16, 72, -44, -16, -1, -21, 18, 41, -70, 14, 5, 7, 7, 68, -55, 18, -16, 59, -49, 69, 59, 35, 40, 3, -21, -39, -27, 67, 61, 1, 65, -12, 31, -31, 68, -5, -16, -16, 70, -77, -42, -9, 51, -8, 60, 64, 23, -47, 0, -13, 66, -71, 14, 19, -61, 52, 72, 66, -62, -1, -38, 75, -63, -12, 13, 72, -62, -60, 32, 30, 50, 21, 19, -25, 16, -19, -10, 74, -57, 35, -71, -31, 62, 18, 40, -3, 61, -25, -34, -44, -7, -59, 24, -15, 1, -38, -3, 73, -18, -44, 60, 58, 46, 
  32, -81, -46, -3, 69, 71, -62, 69, -10, 18, 14, 20, 64, 20, -14, -51, -74, -11, -59, -27, -56, -58, -4, -24, -31, -73, -49, 64, -12, 6, 23, -70, -55, -70, -11, 19, 33, -4, 59, -22, 68, 36, 60, -52, 61, -35, -3, 43, 73, 45, 24, 35, -54, -35, 67, -27, 12, 51, 37, -11, 1, -24, -12, -56, 48, 88, 33, 60, 22, 65, -65, -18, 42, -17, 31, -56, -42, -35, 31, -44, -31, 31, -24, -26, 38, 10, 50, 61, -6, -73, 3, 16, -50, 39, -70, -52, -31, 69, 1, -37, 13, 64, 18, -53, -45, 33, 1, -7, -20, 31, 45, -65, -45, 23, -49, 40, 41, -41, 42, -64, -3, -28, -34, -25, 64, 12, -60, 56, 20, 86, -83, -52, 26, -5, -61, -66, 31, -25, -36, 59, 61, -10, 40, -70, -21, 51, 33, -40, 41, 68, -29, -54, -56, -55, -11, 65, -42, -10, 46, -31, -15, 50, 37, 16, 5, 7, 47, -61, -53, -23, 66, -28, 26, 20, -20, -58, 18, 55, -11, 4, 40, -51, -37, 14, 23, 25, -63, 8, 74, 49, -13, -69, 19, 29, -25, 14, -58, -18, 36, -76, -43, 1, 13, 33, 54, 20, 21, -41, -32, 40, 11, 69, 19, -51, -52, 60, -28, -27, -25, 64, -61, 64, 30, 60, -20, 24, -74, 27, 64, 66, -57, -7, 44, 2, -32, -76, -66, -63, -9, 35, 13, -39, -53, 13, -56, 47, -63, -17, -20, 67, 51, -39, -64, 48, -76, -54, 36, -86, -18, -16, -41, 60, -34, -9, -52, -5, -45, 24, 64, -62, -17, 11, -56, 16, 63, -28, -2, -29, -23, -27, 30, 61, -29, -36, 62, 37, 17, 47, 40, -17, -11, -68, -22, 64, 32, 48, 3, 28, 51, -24, 40, 61, -56, 7, -61, -35, 21, 37, 46, 36, -65, 69, -47, 50, -21, -46, 28, -44, -32, -4, -61, -78, -80, 53, 45, -15, -24, -43, 14, 23, 9, -35, -14, -67, -48, -67, 6, 2, 31, 67, 41, 8, -5, 59, -36, 8, 54, -20, -38, -38, 58, -29, -49, -8, -16, -35, 48, -12, -24, -48, 44, -67, -13, 54, -47, -62, 66, -9, -20, -47, 69, 3, 17, -50, -17, -18, 54, 68, -13, 44, 42, 52, 61, -21, 
  50, -59, -23, 13, 3, -43, -32, 24, 35, 22, 69, -72, -62, 71, -72, -30, -65, 9, 41, -60, 58, 68, -36, 53, -69, -44, -12, -62, 57, -21, 71, -44, -36, 44, -11, -51, -60, 14, 57, -68, -75, 56, -74, 43, -12, 43, -29, -50, -73, -32, -16, 30, 19, -18, -57, -50, 65, -20, 62, -44, 3, 28, -48, 61, -17, 41, 96, 43, -22, 43, 11, -41, 70, -30, 64, 38, -29, 20, 1, 7, 40, 9, -48, -35, 12, -59, 57, 7, -59, 14, -33, 21, -11, 41, -65, -5, 52, 56, 58, 72, -69, 65, -49, 51, -63, -31, 41, -69, -31, -44, -33, -5, 69, 36, -68, 41, 66, -67, 53, 58, -39, -11, -9, -44, -51, -58, -7, 65, 70, -71, -6, -50, -10, 0, 49, 37, 67, 32, -60, 59, -23, 27, -23, -38, 51, 48, 26, -45, 41, 52, -23, -53, 55, 46, 39, -41, -23, 40, -22, -62, 26, 42, 2, -8, -57, -38, 28, 18, 50, -38, 44, 35, -32, -39, -62, 38, 65, 42, 24, 41, -71, -52, -58, -2, 20, 20, 8, 21, 64, 21, -62, 2, -21, 76, -16, -22, -66, 17, 52, 54, 69, -70, 62, -31, -69, 45, -65, -24, 0, 32, 27, 45, -25, -15, -10, 57, -31, -67, -69, 19, 5, 71, -33, 41, 49, 68, -11, -10, -33, -12, 51, 54, -26, -4, -36, -39, 6, 68, -57, -24, -21, 44, 67, -16, -7, -53, -62, 13, 7, -6, 9, -41, -27, 19, 13, -45, 1, -4, -43, 17, 54, -65, 59, -20, -6, 13, -29, -53, -19, 41, 52, -45, 69, 69, 75, -41, 4, -44, 65, -50, -9, -7, -52, 34, 47, 37, -60, 3, -31, -32, -52, -15, 39, -62, -25, 14, 71, -28, -71, -34, -19, 35, 46, -73, 20, -39, -13, 45, -46, 9, 16, -28, 58, -9, -73, -22, -28, 71, -33, 29, -22, 105, -56, -11, -60, 46, 19, -68, -29, 38, 3, -34, -68, -30, -1, 32, -27, -8, -26, -49, 72, 25, -65, 40, 7, -30, -26, -9, 68, -20, 29, -9, -23, -34, -67, 45, 55, 68, -41, -74, 3, 57, 32, -9, -44, -40, 16, 63, -37, 31, -60, 34, -31, -60, -21, -41, -51, -19, 63, -10, 42, 5, 24, 22, 
  0, 62, -54, -69, -69, 20, -9, 12, 27, 24, -4, 28, -41, 34, 34, 57, 12, 32, 26, 43, -67, 61, -60, 32, 17, 1, -33, -27, -14, -40, 19, -25, -26, 38, -6, 16, 0, -68, 19, 65, 42, -35, 22, -52, 51, -45, -66, -18, -53, 50, 30, -6, 52, 62, 29, -42, 64, 32, -53, 61, 2, -46, 14, -32, 12, 30, 11, -43, 6, 47, -63, 60, 59, 63, 30, 52, -31, 17, 62, 27, -51, -43, 10, 69, 73, 56, 7, 38, 42, 73, -2, 72, 15, 46, 70, 51, -61, 36, 39, 33, 56, 63, 70, -22, 50, -46, 11, 29, 72, -42, 22, -62, -72, 13, 43, -46, -25, -64, -2, -8, -39, 15, -9, -26, 27, -17, -43, -34, -21, -55, -13, -22, 15, 62, -49, -30, -40, -22, 9, 11, -39, 21, -30, -5, 60, 12, 70, 8, -5, -57, 36, -26, -30, 57, 44, 30, -35, 50, -37, -60, -41, 69, -59, 41, 6, -22, -63, 48, 47, 7, -15, -35, -40, -48, 39, 71, -9, -70, -63, -17, 74, -31, -49, -40, -20, 15, -11, -28, 2, -72, -62, 44, 22, -62, 37, -59, -61, -59, 20, 29, 56, 62, -11, -22, 56, -4, 32, 53, -45, -65, -7, -41, -30, 62, -20, 60, 51, 37, 2, -49, -37, -62, 9, 43, -40, 9, 35, 11, -18, -4, 9, -19, 68, -61, -30, -48, -56, -40, 34, 29, -43, 54, -74, 17, -61, 15, 9, -36, 45, 15, -13, -56, 39, 44, -72, 6, 67, 36, -42, -62, -53, -19, 32, 70, 46, -66, 21, 60, -2, 7, -41, 10, -18, -16, 1, 9, 22, -34, -40, 5, -42, 29, -57, 56, -38, -15, -47, 55, 4, -39, 65, 21, 17, -48, -72, -45, -64, -63, -25, 47, 28, -1, 61, -64, 56, -1, 38, -19, 4, 72, -53, -26, -21, 21, -48, -66, 59, -48, 63, 74, 37, 52, -38, -68, 23, 32, 23, -58, -68, -1, 30, 11, -47, 31, -37, -67, 16, -48, 68, 48, -18, 23, -50, -41, 7, -35, -40, -66, 17, -36, 66, -47, -16, -37, 57, -31, -27, -25, -6, 31, -60, 29, 35, 53, 67, -9, -43, 34, -20, 23, 65, -16, -11, 20, -28, 40, -50, 19, 23, -48, -46, 64, -51, 18, 
  18, -50, -46, -4, 62, -18, -26, -53, 26, -62, -62, -24, 16, 35, -26, 28, -58, -36, 31, -22, -58, -40, 27, -32, 30, -23, -13, 57, -52, 53, 29, 3, 59, -43, -22, -37, 23, -61, -32, 3, 1, -9, 16, 57, -8, -58, 59, -64, -4, -28, 7, -8, -9, -49, -9, -67, -11, -14, 48, -49, -46, 65, -39, 9, -24, 58, -33, -25, 7, 65, -65, -19, -42, 62, 53, 35, -37, 17, -47, 13, 14, 63, -75, -24, -4, 50, 1, -47, 67, -18, 8, 72, 67, 12, 14, -32, 11, -22, 65, -33, -10, -8, -12, -9, 66, 56, 39, 72, -11, -42, 41, 21, 52, -66, -67, 28, -16, 70, -40, -61, 36, -10, -44, -8, 68, 14, -5, -62, 62, 87, -33, 65, -4, 14, -51, 2, 48, -50, 66, -66, 59, -17, 41, -29, -38, 24, 69, 44, -2, 11, -41, -12, 52, 33, -4, -33, 34, 63, -50, -20, -66, 25, -15, 55, 50, -42, 61, -68, -18, 16, 32, -16, 31, 51, 29, -20, 34, 54, -73, 65, 51, -31, -62, 33, 68, -37, -46, 44, -70, 36, 73, -64, -59, 53, 66, 48, 20, -43, -28, 16, -47, 38, -57, -31, 59, 26, -69, -13, -50, -32, -64, 69, 40, 6, -35, -51, 57, -6, 48, 17, -67, -10, 61, -69, -10, -4, 39, -30, -52, 4, -75, -73, 49, -56, 12, 8, 63, 32, 60, 62, -43, -64, -49, -76, -53, -46, -17, -26, 29, 19, -23, 35, -69, -40, -38, -2, 61, -14, -86, 76, 45, -13, -6, 8, 2, 41, -3, -31, -68, -42, -43, 26, -37, -14, -67, -67, -59, -69, -34, -21, -58, -56, -11, 62, 17, 33, 4, -50, 3, 57, -18, -69, 6, -27, -10, -14, -53, 68, -41, -26, 68, 9, 23, 46, 17, 11, 9, 14, -62, 13, 46, -32, 21, -50, 46, 6, -21, -26, -3, 70, 54, -66, 35, -52, 41, -38, -9, -11, -37, -66, 60, 54, -23, 11, 37, 1, 50, 27, 35, 40, 46, 20, -64, 10, -24, 26, 74, -20, 43, -28, -8, 9, -29, 63, -44, -3, 68, -64, -57, -37, -8, -31, -13, -58, -19, 13, 59, -47, -32, -7, 45, -6, 72, -28, 73, 64, 71, -12, -67, 18, 17, -35, 17, 39, 
  -30, 39, 81, 50, 51, -21, -27, 61, 26, -11, -27, 72, -25, 53, -52, -25, -50, 19, 68, -41, 37, -33, -53, 73, -39, -57, -37, 23, -4, -43, -12, -59, 1, 17, 7, 71, 69, -41, 51, -62, -71, -24, 70, -25, 22, -49, 5, 67, -56, 35, -35, -44, 64, 35, 20, -56, 55, -65, -17, -36, 21, -59, 33, 65, -42, 14, 25, -1, 15, -16, 60, -22, 51, 68, 36, 22, -56, -52, 58, -55, -57, -65, -62, 13, 38, 68, -25, 19, 19, 33, 0, 70, -67, -37, 51, 35, 28, -26, 66, -68, 63, 28, 5, -46, -43, -77, -62, 66, 19, -73, -66, -36, 56, 1, -50, 19, 47, 68, -38, -12, -44, 66, 18, 65, 2, 32, 32, 59, 72, 42, 57, 26, -52, 60, 6, -15, 70, 42, 18, -15, -71, -67, -66, 50, 39, -2, 21, 31, 62, -4, 36, 61, -72, -54, 22, -20, -15, 27, 30, -36, -57, -67, -71, -4, 62, 53, -65, -36, 60, 13, -71, -22, 51, 55, 56, 59, 14, 11, -24, 55, 75, 61, 64, -32, -64, 34, 63, -20, 11, -60, 46, 55, 6, 81, 66, -61, 19, 64, 35, -35, 3, -32, 15, -44, 24, -30, 31, -18, 38, -28, -57, -4, -3, 4, -9, 42, -31, -56, 18, -65, -13, -18, -7, -24, -47, -5, -2, -41, -69, 15, 62, -9, 47, 34, 38, -8, 13, 40, 38, -38, 74, -60, -21, -65, -33, 1, 58, 46, 72, -18, 29, 58, -48, -26, 30, -41, -90, 33, -31, 69, 66, 71, -10, 31, -6, -33, -56, 12, -36, -30, 60, -33, 47, -59, 69, 26, 61, 28, 32, 41, -12, -7, -44, -6, -44, 35, -45, -56, 23, -11, -40, 21, -67, -6, 24, -57, -16, -18, -62, 51, 22, 15, 39, -26, -20, 18, -70, -11, 10, -16, 19, -71, 36, 32, -64, 27, -54, -6, 22, 22, -51, -17, 48, -56, 30, -11, -70, 37, 69, 42, -73, -16, -4, 10, -46, 26, 30, -7, -61, 72, 51, 28, -39, 25, -50, 34, 10, -10, 6, -34, 14, 41, 68, -35, -58, 62, -17, -30, 51, -56, -75, 27, -22, -76, 54, -30, 51, -41, -2, 60, -16, 32, -55, 24, 24, -58, 0, -32, -10, -32, -27, -31, -39, 69, 
  -46, -21, 24, -71, 37, 6, -48, -7, -2, -24, -66, -28, -63, -52, -55, -37, 4, -43, -40, 30, -34, 63, -41, 57, -32, -63, -2, -20, -66, -50, 36, -28, -44, -65, 72, 60, 21, -47, -56, -24, -52, 17, -40, 41, 3, -11, 75, 19, -57, -67, 5, -61, 37, -38, 48, -50, -47, -45, -19, 54, -22, -37, -45, 61, 61, -15, 33, -57, 12, 60, 42, 36, 51, -34, -71, 19, 63, 11, -25, 24, 19, 29, 62, -2, 36, 13, 59, 5, -6, -59, -71, 58, 46, -24, -51, -50, 44, 17, 69, -44, -72, 74, 18, 8, -35, 5, -34, -50, 5, 41, -50, 11, -72, -37, -41, -52, 37, 34, -62, -64, 64, -40, -19, 13, 20, 70, -14, -28, 0, 26, -82, -28, 9, -7, -11, -39, 18, 72, -33, 21, 50, -22, -11, -29, 60, 55, 18, 23, -12, -18, -4, 28, 60, 33, -1, -36, 35, -28, 70, -11, 20, -31, 26, -59, -24, -62, -30, 75, -5, 46, 60, -55, 69, 53, -7, 36, -45, -35, 52, 47, 31, -27, -64, 66, 58, -54, -64, -41, -8, 11, -1, 12, -28, -42, 9, -25, -27, -35, 39, -57, 43, -61, -29, 26, -16, -38, -48, 13, -21, -51, 2, 5, 52, 66, -39, 15, 52, 55, -12, 64, -42, 54, -18, 64, -17, 51, -54, 29, -10, -28, 16, -20, 44, -66, 4, -67, -40, 3, 36, -67, 9, -24, -8, -8, -33, 8, 11, -37, -1, -12, -21, 66, 43, -64, -43, -22, 95, -90, -17, 37, -36, 46, 57, -63, -69, 54, 1, 49, -58, 45, 65, -56, -24, 18, -26, -20, -63, -55, 47, 6, 72, 3, -18, 34, -64, -61, -10, -11, 20, 48, 4, -53, -13, 9, -15, -14, -1, 15, -63, 31, -29, 64, 72, 54, 12, -48, -55, 24, 4, 0, -29, 55, 2, 51, -25, 56, -22, 60, 4, -2, -5, 1, 3, 39, 22, -42, 9, 15, 67, 21, 52, 63, 24, -12, -71, -35, 50, 48, 40, 61, -26, -71, -60, 23, -63, 42, 8, -7, -63, -8, 19, -71, -49, 43, -32, 31, 73, -41, 67, 16, -1, 43, 35, -54, -39, -48, 22, -36, 22, 74, 0, 17, -29, 0, -16, 6, -21, -9, -69, 20, 69, -30, -61, -49, 
  12, 47, 0, -34, -9, -26, 21, -10, 52, 49, -61, 57, 49, -2, -2, -31, -3, -62, -40, 18, -29, -68, 57, -59, -6, 1, -48, -32, 25, 57, -52, 10, 61, -46, 5, 25, -68, 15, 4, -11, -49, -52, 18, 40, 0, -60, -69, 19, -8, 1, 18, 32, -62, 24, 34, -38, 37, -62, -50, 61, -57, 49, -55, 24, -59, 23, -37, -46, -42, -48, -74, 44, -26, -13, -19, 21, -63, -74, -67, -35, 55, -8, -4, -65, -17, 24, 62, -10, 19, -1, -70, 11, -50, -17, 21, -61, -48, -52, 73, -44, -23, 56, 50, -56, -13, 47, -69, -52, -5, 42, 72, 55, -62, -46, 31, 10, -6, -42, -33, -6, 72, 9, 31, -38, 19, 46, -67, -2, -42, 27, -74, 7, 66, 39, 9, 73, 34, 59, -41, -31, 28, -47, 25, 20, 1, 57, -51, 56, -14, 28, -72, 37, -15, -26, 5, -67, -57, -13, -1, 39, -57, -70, 57, -23, 18, -59, 47, 43, 61, -46, -27, 45, 26, -19, 12, 41, -55, 4, -47, -23, 16, -48, -21, -9, -26, 25, -50, -17, -23, 64, -23, -13, 63, 21, 1, 48, -53, -58, 60, -61, 25, -77, 6, 40, 33, -17, -45, 54, 14, 19, -15, -13, -31, 6, 17, 18, -34, 38, 42, -43, -38, 46, 28, -13, 28, 57, -74, -39, -51, -70, 53, -46, -38, -10, -1, 54, -41, 60, 5, -11, 63, -59, -30, -75, -63, -16, -47, 68, 18, -49, -76, -15, -73, 51, -25, 31, 101, -42, 52, -34, -36, 55, -72, -13, 73, -55, 54, 19, 44, -54, 36, 70, 58, 20, 14, -29, -19, 47, 28, 33, -40, 25, 56, 14, 21, 28, -17, 73, 29, 65, 67, 64, -16, 33, -2, 49, -43, 35, 49, 54, 20, -43, 71, 56, -64, -33, -65, 73, -21, -34, 45, -41, -64, 36, -61, 58, -11, -15, -30, 37, -12, -60, -88, -57, -27, 26, -40, 18, -52, -18, -16, -24, -73, 14, -6, 6, -27, -32, 66, 46, 2, -33, 37, -59, 63, -21, -24, -1, -17, -49, -23, -49, -22, -28, 35, -26, 42, 6, 60, 19, -8, -34, -10, -20, 63, 17, -26, 71, -33, 60, 70, 41, -22, -52, -46, -69, 45, -50, -23, 66, -52, -67, 48, -23, 
};
const TfArray<2, int> tensor_dimension6 = { 2, { 20,384 } };
const TfArray<1, float> quant6_scale = { 1, { 0.0016514965100213885, } };
const TfLiteAffineQuantization quant6 = { (TfLiteFloatArray*)&quant6_scale, (TfLiteIntArray*)&g0::quant1_zero, 0 };
const TfArray<2, int> tensor_dimension7 = { 2, { 1,20 } };
const TfArray<1, float> quant7_scale = { 1, { 0.088826291263103485, } };
const TfArray<1, int> quant7_zero = { 1, { -128 } };
const TfLiteAffineQuantization quant7 = { (TfLiteFloatArray*)&quant7_scale, (TfLiteIntArray*)&quant7_zero, 0 };
const TfArray<2, int> tensor_dimension8 = { 2, { 1,10 } };
const TfArray<1, float> quant8_scale = { 1, { 0.059156112372875214, } };
const TfLiteAffineQuantization quant8 = { (TfLiteFloatArray*)&quant8_scale, (TfLiteIntArray*)&g0::quant7_zero, 0 };
const TfArray<2, int> tensor_dimension9 = { 2, { 1,2 } };
const TfArray<1, float> quant9_scale = { 1, { 0.031967420130968094, } };
const TfLiteAffineQuantization quant9 = { (TfLiteFloatArray*)&quant9_scale, (TfLiteIntArray*)&g0::quant0_zero, 0 };
const TfArray<1, float> quant10_scale = { 1, { 0.00390625, } };
const TfLiteAffineQuantization quant10 = { (TfLiteFloatArray*)&quant10_scale, (TfLiteIntArray*)&g0::quant7_zero, 0 };
const TfLiteFullyConnectedParams opdata0 = { kTfLiteActRelu, kTfLiteFullyConnectedWeightsFormatDefault, false, false };
const TfArray<3, int> inputs0 = { 3, { 0,6,5 } };
const TfArray<1, int> outputs0 = { 1, { 7 } };
const TfLiteFullyConnectedParams opdata1 = { kTfLiteActRelu, kTfLiteFullyConnectedWeightsFormatDefault, false, false };
const TfArray<3, int> inputs1 = { 3, { 7,4,3 } };
const TfArray<1, int> outputs1 = { 1, { 8 } };
const TfLiteFullyConnectedParams opdata2 = { kTfLiteActNone, kTfLiteFullyConnectedWeightsFormatDefault, false, false };
const TfArray<3, int> inputs2 = { 3, { 8,2,1 } };
const TfArray<1, int> outputs2 = { 1, { 9 } };
const TfLiteSoftmaxParams opdata3 = { 1 };
const TfArray<1, int> inputs3 = { 1, { 9 } };
const TfArray<1, int> outputs3 = { 1, { 10 } };
};

TensorInfo_t tensorData[] = {
{ kTfLiteArenaRw, kTfLiteInt8, (int32_t*)(tensor_arena + 0), (TfLiteIntArray*)&g0::tensor_dimension0, 384, {kTfLiteAffineQuantization, const_cast<void*>(static_cast<const void*>(&g0::quant0))}, },
{ kTfLiteMmapRo, kTfLiteInt32, (int32_t*)g0::tensor_data1, (TfLiteIntArray*)&g0::tensor_dimension1, 8, {kTfLiteAffineQuantization, const_cast<void*>(static_cast<const void*>(&g0::quant1))}, },
{ kTfLiteMmapRo, kTfLiteInt8, (int32_t*)g0::tensor_data2, (TfLiteIntArray*)&g0::tensor_dimension2, 20, {kTfLiteAffineQuantization, const_cast<void*>(static_cast<const void*>(&g0::quant2))}, },
{ kTfLiteMmapRo, kTfLiteInt32, (int32_t*)g0::tensor_data3, (TfLiteIntArray*)&g0::tensor_dimension3, 40, {kTfLiteAffineQuantization, const_cast<void*>(static_cast<const void*>(&g0::quant3))}, },
{ kTfLiteMmapRo, kTfLiteInt8, (int32_t*)g0::tensor_data4, (TfLiteIntArray*)&g0::tensor_dimension4, 200, {kTfLiteAffineQuantization, const_cast<void*>(static_cast<const void*>(&g0::quant4))}, },
{ kTfLiteMmapRo, kTfLiteInt32, (int32_t*)g0::tensor_data5, (TfLiteIntArray*)&g0::tensor_dimension5, 80, {kTfLiteAffineQuantization, const_cast<void*>(static_cast<const void*>(&g0::quant5))}, },
{ kTfLiteMmapRo, kTfLiteInt8, (int32_t*)g0::tensor_data6, (TfLiteIntArray*)&g0::tensor_dimension6, 7680, {kTfLiteAffineQuantization, const_cast<void*>(static_cast<const void*>(&g0::quant6))}, },
{ kTfLiteArenaRw, kTfLiteInt8, (int32_t*)(tensor_arena + 384), (TfLiteIntArray*)&g0::tensor_dimension7, 20, {kTfLiteAffineQuantization, const_cast<void*>(static_cast<const void*>(&g0::quant7))}, },
{ kTfLiteArenaRw, kTfLiteInt8, (int32_t*)(tensor_arena + 0), (TfLiteIntArray*)&g0::tensor_dimension8, 10, {kTfLiteAffineQuantization, const_cast<void*>(static_cast<const void*>(&g0::quant8))}, },
{ kTfLiteArenaRw, kTfLiteInt8, (int32_t*)(tensor_arena + 16), (TfLiteIntArray*)&g0::tensor_dimension9, 2, {kTfLiteAffineQuantization, const_cast<void*>(static_cast<const void*>(&g0::quant9))}, },
{ kTfLiteArenaRw, kTfLiteInt8, (int32_t*)(tensor_arena + 0), (TfLiteIntArray*)&g0::tensor_dimension9, 2, {kTfLiteAffineQuantization, const_cast<void*>(static_cast<const void*>(&g0::quant10))}, },
};

#ifndef TF_LITE_STATIC_MEMORY
TfLiteNode tflNodes[4] = {
{ (TfLiteIntArray*)&g0::inputs0, (TfLiteIntArray*)&g0::outputs0, (TfLiteIntArray*)&g0::inputs0, nullptr, nullptr, const_cast<void*>(static_cast<const void*>(&g0::opdata0)), nullptr, 0, },
{ (TfLiteIntArray*)&g0::inputs1, (TfLiteIntArray*)&g0::outputs1, (TfLiteIntArray*)&g0::inputs1, nullptr, nullptr, const_cast<void*>(static_cast<const void*>(&g0::opdata1)), nullptr, 0, },
{ (TfLiteIntArray*)&g0::inputs2, (TfLiteIntArray*)&g0::outputs2, (TfLiteIntArray*)&g0::inputs2, nullptr, nullptr, const_cast<void*>(static_cast<const void*>(&g0::opdata2)), nullptr, 0, },
{ (TfLiteIntArray*)&g0::inputs3, (TfLiteIntArray*)&g0::outputs3, (TfLiteIntArray*)&g0::inputs3, nullptr, nullptr, const_cast<void*>(static_cast<const void*>(&g0::opdata3)), nullptr, 0, },
};
#else
TfLiteNode tflNodes[4] = {
{ (TfLiteIntArray*)&g0::inputs0, (TfLiteIntArray*)&g0::outputs0, (TfLiteIntArray*)&g0::inputs0, nullptr, const_cast<void*>(static_cast<const void*>(&g0::opdata0)), nullptr, 0, },
{ (TfLiteIntArray*)&g0::inputs1, (TfLiteIntArray*)&g0::outputs1, (TfLiteIntArray*)&g0::inputs1, nullptr, const_cast<void*>(static_cast<const void*>(&g0::opdata1)), nullptr, 0, },
{ (TfLiteIntArray*)&g0::inputs2, (TfLiteIntArray*)&g0::outputs2, (TfLiteIntArray*)&g0::inputs2, nullptr, const_cast<void*>(static_cast<const void*>(&g0::opdata2)), nullptr, 0, },
{ (TfLiteIntArray*)&g0::inputs3, (TfLiteIntArray*)&g0::outputs3, (TfLiteIntArray*)&g0::inputs3, nullptr, const_cast<void*>(static_cast<const void*>(&g0::opdata3)), nullptr, 0, },
};
#endif

used_operators_e used_ops[] =
{OP_FULLY_CONNECTED, OP_FULLY_CONNECTED, OP_FULLY_CONNECTED, OP_SOFTMAX, };


// Indices into tflTensors and tflNodes for subgraphs
const size_t tflTensors_subgraph_index[] = {0, 11, };
const size_t tflNodes_subgraph_index[] = {0, 4, };

// Input/output tensors
static const int in_tensor_indices[] = {
  0, 
};

static const int out_tensor_indices[] = {
  10, 
};


size_t current_subgraph_index = 0;

static void init_tflite_tensor(size_t i, TfLiteTensor *tensor) {
  tensor->type = tensorData[i].type;
  tensor->is_variable = false;

#if defined(EI_CLASSIFIER_ALLOCATION_HEAP)
  tensor->allocation_type = tensorData[i].allocation_type;
#else
  tensor->allocation_type = (tensor_arena <= tensorData[i].data && tensorData[i].data < tensor_arena + kTensorArenaSize) ? kTfLiteArenaRw : kTfLiteMmapRo;
#endif
  tensor->bytes = tensorData[i].bytes;
  tensor->dims = tensorData[i].dims;

#if defined(EI_CLASSIFIER_ALLOCATION_HEAP)
  if(tensor->allocation_type == kTfLiteArenaRw){
    uint8_t* start = (uint8_t*) ((uintptr_t)tensorData[i].data + (uintptr_t) tensor_arena);

    tensor->data.data =  start;
  }
  else {
      tensor->data.data = tensorData[i].data;
  }
#else
  tensor->data.data = tensorData[i].data;
#endif // EI_CLASSIFIER_ALLOCATION_HEAP
  tensor->quantization = tensorData[i].quantization;
  if (tensor->quantization.type == kTfLiteAffineQuantization) {
    TfLiteAffineQuantization const* quant = ((TfLiteAffineQuantization const*)(tensorData[i].quantization.params));
    tensor->params.scale = quant->scale->data[0];
    tensor->params.zero_point = quant->zero_point->data[0];
  }

}

static void init_tflite_eval_tensor(int i, TfLiteEvalTensor *tensor) {

  tensor->type = tensorData[i].type;

  tensor->dims = tensorData[i].dims;

#if defined(EI_CLASSIFIER_ALLOCATION_HEAP)
  auto allocation_type = tensorData[i].allocation_type;
  if(allocation_type == kTfLiteArenaRw) {
    uint8_t* start = (uint8_t*) ((uintptr_t)tensorData[i].data + (uintptr_t) tensor_arena);

    tensor->data.data =  start;
  }
  else {
    tensor->data.data = tensorData[i].data;
  }
#else
  tensor->data.data = tensorData[i].data;
#endif // EI_CLASSIFIER_ALLOCATION_HEAP
}

static void* overflow_buffers[EI_MAX_OVERFLOW_BUFFER_COUNT];
static size_t overflow_buffers_ix = 0;
static void * AllocatePersistentBufferImpl(struct TfLiteContext* ctx,
                                       size_t bytes) {
  void *ptr;
  uint32_t align_bytes = (bytes % 16) ? 16 - (bytes % 16) : 0;

  if (current_location - (bytes + align_bytes) < tensor_boundary) {
    if (overflow_buffers_ix > EI_MAX_OVERFLOW_BUFFER_COUNT - 1) {
      ei_printf("ERR: Failed to allocate persistent buffer of size %d, does not fit in tensor arena and reached EI_MAX_OVERFLOW_BUFFER_COUNT\n",
        (int)bytes);
      return NULL;
    }

    // OK, this will look super weird, but.... we have CMSIS-NN buffers which
    // we cannot calculate beforehand easily.
    ptr = ei_calloc(bytes, 1);
    if (ptr == NULL) {
      ei_printf("ERR: Failed to allocate persistent buffer of size %d\n", (int)bytes);
      return NULL;
    }
    overflow_buffers[overflow_buffers_ix++] = ptr;
    return ptr;
  }

  current_location -= bytes;

  // align to the left aligned boundary of 16 bytes
  current_location -= 15; // for alignment
  current_location += 16 - ((uintptr_t)(current_location) & 15);

  ptr = current_location;
  memset(ptr, 0, bytes);

  return ptr;
}

typedef struct {
  size_t bytes;
  void *ptr;
} scratch_buffer_t;

static scratch_buffer_t scratch_buffers[EI_MAX_SCRATCH_BUFFER_COUNT];
static size_t scratch_buffers_ix = 0;

static TfLiteStatus RequestScratchBufferInArenaImpl(struct TfLiteContext* ctx, size_t bytes,
                                                int* buffer_idx) {
  if (scratch_buffers_ix > EI_MAX_SCRATCH_BUFFER_COUNT - 1) {
    ei_printf("ERR: Failed to allocate scratch buffer of size %d, reached EI_MAX_SCRATCH_BUFFER_COUNT\n",
      (int)bytes);
    return kTfLiteError;
  }

  scratch_buffer_t b;
  b.bytes = bytes;

  b.ptr = AllocatePersistentBufferImpl(ctx, b.bytes);
  if (!b.ptr) {
    ei_printf("ERR: Failed to allocate scratch buffer of size %d\n",
      (int)bytes);
    return kTfLiteError;
  }

  scratch_buffers[scratch_buffers_ix] = b;
  *buffer_idx = scratch_buffers_ix;

  scratch_buffers_ix++;

  return kTfLiteOk;
}

static void* GetScratchBufferImpl(struct TfLiteContext* ctx, int buffer_idx) {
  if (buffer_idx > (int)scratch_buffers_ix) {
    return NULL;
  }
  return scratch_buffers[buffer_idx].ptr;
}

static const uint16_t TENSOR_IX_UNUSED = 0x7FFF;

static void ResetTensors() {
  for (size_t ix = 0; ix < MAX_TFL_TENSOR_COUNT; ix++) {
    tflTensors[ix].index = TENSOR_IX_UNUSED;
  }
  for (size_t ix = 0; ix < MAX_TFL_EVAL_COUNT; ix++) {
    tflEvalTensors[ix].index = TENSOR_IX_UNUSED;
  }
}

static TfLiteTensor* GetTensorImpl(const struct TfLiteContext* context,
                               int tensor_idx) {

  tensor_idx = tflTensors_subgraph_index[current_subgraph_index] + tensor_idx;

  for (size_t ix = 0; ix < MAX_TFL_TENSOR_COUNT; ix++) {
    // already used? OK!
    if (tflTensors[ix].index == tensor_idx) {
      return &tflTensors[ix].tensor;
    }
    // passed all the ones we've used, so end of the list?
    if (tflTensors[ix].index == TENSOR_IX_UNUSED) {
      // init the tensor
      init_tflite_tensor(tensor_idx, &tflTensors[ix].tensor);
      tflTensors[ix].index = tensor_idx;
      return &tflTensors[ix].tensor;
    }
  }

  ei_printf("ERR: GetTensor called beyond MAX_TFL_TENSOR_COUNT (%d)\n", MAX_TFL_TENSOR_COUNT);
  return nullptr;
}

static TfLiteEvalTensor* GetEvalTensorImpl(const struct TfLiteContext* context,
                                       int tensor_idx) {

  tensor_idx = tflTensors_subgraph_index[current_subgraph_index] + tensor_idx;

  for (size_t ix = 0; ix < MAX_TFL_EVAL_COUNT; ix++) {
    // already used? OK!
    if (tflEvalTensors[ix].index == tensor_idx) {
      return &tflEvalTensors[ix].tensor;
    }
    // passed all the ones we've used, so end of the list?
    if (tflEvalTensors[ix].index == TENSOR_IX_UNUSED) {
      // init the tensor
      init_tflite_eval_tensor(tensor_idx, &tflEvalTensors[ix].tensor);
      tflEvalTensors[ix].index = tensor_idx;
      return &tflEvalTensors[ix].tensor;
    }
  }

  ei_printf("ERR: GetTensor called beyond MAX_TFL_EVAL_COUNT (%d)\n", (int)MAX_TFL_EVAL_COUNT);
  return nullptr;
}

class EonMicroContext : public MicroContext {
 public:
 
  EonMicroContext(): MicroContext(nullptr, nullptr, nullptr) { }

  void* AllocatePersistentBuffer(size_t bytes) {
    return AllocatePersistentBufferImpl(nullptr, bytes);
  }

  TfLiteStatus RequestScratchBufferInArena(size_t bytes,
                                           int* buffer_index) {
  return RequestScratchBufferInArenaImpl(nullptr, bytes, buffer_index);
  }

  void* GetScratchBuffer(int buffer_index) {
    return GetScratchBufferImpl(nullptr, buffer_index);
  }
 
  TfLiteTensor* AllocateTempTfLiteTensor(int tensor_index) {
    return GetTensorImpl(nullptr, tensor_index);
  }

  void DeallocateTempTfLiteTensor(TfLiteTensor* tensor) {
    return;
  }

  bool IsAllTempTfLiteTensorDeallocated() {
    return true;
  }

  TfLiteEvalTensor* GetEvalTensor(int tensor_index) {
    return GetEvalTensorImpl(nullptr, tensor_index);
  }

};


} // namespace

TfLiteStatus tflite_learn_867931_15_init( void*(*alloc_fnc)(size_t,size_t) ) {
#ifdef EI_CLASSIFIER_ALLOCATION_HEAP
  tensor_arena = (uint8_t*) alloc_fnc(16, kTensorArenaSize);
  if (!tensor_arena) {
    ei_printf("ERR: failed to allocate tensor arena\n");
    return kTfLiteError;
  }
#else
  memset(tensor_arena, 0, kTensorArenaSize);
#endif
  tensor_boundary = tensor_arena;
  current_location = tensor_arena + kTensorArenaSize;

  EonMicroContext micro_context_;
  
  // Set microcontext as the context ptr
  ctx.impl_ = static_cast<void*>(&micro_context_);
  // Setup tflitecontext functions
  ctx.AllocatePersistentBuffer = &AllocatePersistentBufferImpl;
  ctx.RequestScratchBufferInArena = &RequestScratchBufferInArenaImpl;
  ctx.GetScratchBuffer = &GetScratchBufferImpl;
  ctx.GetTensor = &GetTensorImpl;
  ctx.GetEvalTensor = &GetEvalTensorImpl;
  ctx.ReportError = &MicroContextReportOpError;

  ctx.tensors_size = 11;
  for (size_t i = 0; i < 11; ++i) {
    TfLiteTensor tensor;
    init_tflite_tensor(i, &tensor);
    if (tensor.allocation_type == kTfLiteArenaRw) {
      auto data_end_ptr = (uint8_t*)tensor.data.data + tensorData[i].bytes;
      if (data_end_ptr > tensor_boundary) {
        tensor_boundary = data_end_ptr;
      }
    }
  }

  if (tensor_boundary > current_location /* end of arena size */) {
    ei_printf("ERR: tensor arena is too small, does not fit model - even without scratch buffers\n");
    return kTfLiteError;
  }

  registrations[OP_FULLY_CONNECTED] = Register_FULLY_CONNECTED();
  registrations[OP_SOFTMAX] = Register_SOFTMAX();

  for (size_t g = 0; g < 1; ++g) {
    current_subgraph_index = g;
    for(size_t i = tflNodes_subgraph_index[g]; i < tflNodes_subgraph_index[g+1]; ++i) {
      if (registrations[used_ops[i]].init) {
        tflNodes[i].user_data = registrations[used_ops[i]].init(&ctx, (const char*)tflNodes[i].builtin_data, 0);
      }
    }
  }
  current_subgraph_index = 0;

  for(size_t g = 0; g < 1; ++g) {
    current_subgraph_index = g;
    for(size_t i = tflNodes_subgraph_index[g]; i < tflNodes_subgraph_index[g+1]; ++i) {
      if (registrations[used_ops[i]].prepare) {
        ResetTensors();
        TfLiteStatus status = registrations[used_ops[i]].prepare(&ctx, &tflNodes[i]);
        if (status != kTfLiteOk) {
          return status;
        }
      }
    }
  }
  current_subgraph_index = 0;

  return kTfLiteOk;
}

TfLiteStatus tflite_learn_867931_15_input(int index, TfLiteTensor *tensor) {
  init_tflite_tensor(in_tensor_indices[index], tensor);
  return kTfLiteOk;
}

TfLiteStatus tflite_learn_867931_15_output(int index, TfLiteTensor *tensor) {
  init_tflite_tensor(out_tensor_indices[index], tensor);
  return kTfLiteOk;
}

TfLiteStatus tflite_learn_867931_15_invoke() {
  for (size_t i = 0; i < 4; ++i) {
    ResetTensors();

    TfLiteStatus status = registrations[used_ops[i]].invoke(&ctx, &tflNodes[i]);

#if EI_CLASSIFIER_PRINT_STATE
    ei_printf("layer %lu\n", i);
    ei_printf("    inputs:\n");
    for (size_t ix = 0; ix < tflNodes[i].inputs->size; ix++) {
      auto d = tensorData[tflNodes[i].inputs->data[ix]];

      size_t data_ptr = (size_t)d.data;

      if (d.allocation_type == kTfLiteArenaRw) {
        data_ptr = (size_t)tensor_arena + data_ptr;
      }

      if (d.type == TfLiteType::kTfLiteInt8) {
        int8_t* data = (int8_t*)data_ptr;
        ei_printf("        %lu (%zu bytes, ptr=%p, alloc_type=%d, type=%d): ", ix, d.bytes, data, (int)d.allocation_type, (int)d.type);
        for (size_t jx = 0; jx < d.bytes; jx++) {
          ei_printf("%d ", data[jx]);
        }
      }
      else {
        float* data = (float*)data_ptr;
        ei_printf("        %lu (%zu bytes, ptr=%p, alloc_type=%d, type=%d): ", ix, d.bytes, data, (int)d.allocation_type, (int)d.type);
        for (size_t jx = 0; jx < d.bytes / 4; jx++) {
          ei_printf("%f ", data[jx]);
        }
      }
      ei_printf("\n");
    }
    ei_printf("\n");

    ei_printf("    outputs:\n");
    for (size_t ix = 0; ix < tflNodes[i].outputs->size; ix++) {
      auto d = tensorData[tflNodes[i].outputs->data[ix]];

      size_t data_ptr = (size_t)d.data;

      if (d.allocation_type == kTfLiteArenaRw) {
        data_ptr = (size_t)tensor_arena + data_ptr;
      }

      if (d.type == TfLiteType::kTfLiteInt8) {
        int8_t* data = (int8_t*)data_ptr;
        ei_printf("        %lu (%zu bytes, ptr=%p, alloc_type=%d, type=%d): ", ix, d.bytes, data, (int)d.allocation_type, (int)d.type);
        for (size_t jx = 0; jx < d.bytes; jx++) {
          ei_printf("%d ", data[jx]);
        }
      }
      else {
        float* data = (float*)data_ptr;
        ei_printf("        %lu (%zu bytes, ptr=%p, alloc_type=%d, type=%d): ", ix, d.bytes, data, (int)d.allocation_type, (int)d.type);
        for (size_t jx = 0; jx < d.bytes / 4; jx++) {
          ei_printf("%f ", data[jx]);
        }
      }
      ei_printf("\n");
    }
    ei_printf("\n");
#endif // EI_CLASSIFIER_PRINT_STATE

    if (status != kTfLiteOk) {
      return status;
    }
  }
  return kTfLiteOk;
}

TfLiteStatus tflite_learn_867931_15_reset( void (*free_fnc)(void* ptr) ) {
#ifdef EI_CLASSIFIER_ALLOCATION_HEAP
  free_fnc(tensor_arena);
#endif

  // scratch buffers are allocated within the arena, so just reset the counter so memory can be reused
  scratch_buffers_ix = 0;

  // overflow buffers are on the heap, so free them first
  for (size_t ix = 0; ix < overflow_buffers_ix; ix++) {
    ei_free(overflow_buffers[ix]);
  }
  overflow_buffers_ix = 0;
  return kTfLiteOk;
}
